-1.696499574795088184e-44 8.000000000002349676e-01 8.326093579242339763e-04 -7.978145449326802252e-01 -8.000005345505291077e-01 8.000000000000000444e-01 8.019840106439888316e-01 -1.998377581084397059e-01 3.981026207831426245e-01 4.000000000000001332e-01 3.752691513904308207e-10 2.000108587800005500e-01 8.255031053739825104e-09 -2.603229338961585669e-03 -7.520507358552390312e-04 -3.999999999999999112e-01 5.999671605375419547e-01 4.000000000000001332e-01 4.000000000000001332e-01 1.893370268791570443e-01 -8.000000000000000444e-01 -2.003505073357957633e-01 -8.002182280557706973e-01 -8.015976195094143275e-01 -9.985882679315301047e-01 5.999999999999444666e-01 -9.971380956335914592e-01 6.000000000000000888e-01 -1.999999999999999556e-01 -2.039028056162026370e-01 -2.012681780707983870e-01 -4.000000000000003553e-01 2.000131478065805268e-01 4.008980138575588548e-01 4.000020891603002227e-01 7.975602349967676474e-01 -7.999999998912307175e-01
-5.999999999999999778e-01 6.000000000000279554e-01 -7.999514748377339890e-01 3.998396468412586113e-01 7.999998306055415842e-01 8.000000000000000444e-01 4.003565361012420554e-01 -8.003345648835047399e-01 -7.744404966765281850e-04 6.000000000000000888e-01 -3.999999995458048963e-01 2.231921039203267103e-06 -9.999999954972557115e-01 -8.006227057603257924e-01 7.997340566672288542e-01 -1.999999999999999556e-01 -2.000262304853753503e-01 8.000000000000000444e-01 -3.999999999999999112e-01 -1.000119115564084060e+00 -1.000000000000000000e+00 -3.994368185630157164e-01 -2.000090454332648371e-01 6.011002498508977165e-01 2.000402367122816605e-01 -1.999999999999299005e-01 -6.000387260790321919e-01 2.000000000000001776e-01 7.945641755767065561e-45 -4.020066495705012510e-01 -1.264342103948780361e-04 8.000000000000000444e-01 -7.999983334316133066e-01 -1.997278656965066623e-01 -3.603210792146404745e-08 -8.003134276815152548e-01 -1.999999999891181879e-01
-1.999999999999999556e-01 2.000000000032508274e-01 -5.903778266645295369e-01 -4.952180186092515132e-03 -2.000080808107911334e-01 -8.000000000000000444e-01 -3.729846514776142818e-01 -8.215675899882902700e-01 3.326236767891421753e-01 -1.000000000000000000e+00 -1.999999725631385616e-01 -1.998842508397007944e-01 8.000001236207957556e-01 3.597871822547868970e-01 -1.011007913734081942e+00 4.000000000000001332e-01 -2.013456680410298516e-01 4.000000000000001332e-01 8.000000000000000444e-01 -2.455780380729328805e-01 -1.999999999999999556e-01 8.353130686481301526e-01 -2.011995556937167806e-01 6.224611771837430807e-02 -5.956881712769406256e-01 6.000000000024454661e-01 -5.928042377838846910e-01 4.000000000000001332e-01 8.000000000000000444e-01 -8.193497406392975524e-01 -8.158501113132700100e-01 -2.000000000000049516e-01 -3.999561943932613550e-01 -9.906510231758743901e-01 3.999992959541829873e-01 -8.270859810723942829e-01 8.000000005109201284e-01
-3.999999999999999112e-01 -9.999999999874655821e-01 3.093284380709784842e-02 -9.937682694561547070e-01 -6.000395708316894616e-01 -3.999999999999999112e-01 -8.964484371000180918e-01 1.374138531142162778e-01 -1.293590392290071778e+00 8.000000000000000444e-01 6.000001001059177552e-01 8.004736120146512812e-01 -5.999995128849444637e-01 6.807805825830278712e-01 -2.449664619293140388e-01 6.000000000000000888e-01 -4.069121276918332697e-01 -3.999999999999999112e-01 8.000000000000000444e-01 -6.374174931902323316e-01 1.602791545134388609e-30 -8.894122828732220487e-01 -6.746467072483125320e-03 1.530240549263543193e-01 2.661928506276825535e-02 -5.999999999933174344e-01 6.408816360265459089e-01 -8.000000000000000444e-01 8.000000000000000444e-01 7.017972889713328666e-01 -8.895147598133508471e-02 -1.000000000000019318e+00 -7.997641156813812824e-01 -9.638863438610955070e-01 6.000186236572868648e-01 7.184457405417802311e-01 -1.999999970301521157e-01
-1.569262106685454896e-43 8.000000000007987389e-01 -9.986810458963023551e-01 4.000772582969251423e-01 -2.000021644761164064e-01 -1.000000000000000000e+00 6.033198324673485491e-01 -4.034882302200004656e-01 1.869506776310006779e-01 -4.889585653019231722e-114 -1.999999945618705366e-01 -1.999669943034528830e-01 6.000000327472306827e-01 1.950828132291382300e-01 -6.025462772813278134e-01 -5.999999999999999778e-01 -1.000579102450482427e+00 -8.000000000000000444e-01 -1.000000000000000000e+00 -6.164322523275967969e-01 -1.000000000000000000e+00 -5.937291349152269415e-01 -3.277599224856720013e-04 -3.893604140993535689e-01 4.011650387863356926e-01 2.000000000003368250e-01 -1.990952344758761261e-01 -5.999999999999999778e-01 -5.999999999999999778e-01 7.970735896047757008e-01 -4.081168737436075555e-01 5.999999999999987566e-01 -5.999909764985381644e-01 -7.987495711860294056e-01 6.000008335267229542e-01 -6.034753901300706769e-01 -9.999999998821447189e-01
-3.999999999999999112e-01 -9.999999999997685185e-01 2.003669147054313038e-01 6.040551582345470294e-01 5.999953549645195006e-01 4.000000000000001332e-01 2.007304157670880551e-01 7.999412975751184485e-01 7.975217904106352007e-01 -1.999999999999999556e-01 -3.999999989859758798e-01 -7.999681041575860130e-01 8.000000126895518981e-01 -4.009506441499370855e-01 -1.000374851618593741e+00 2.000000000000001776e-01 -5.102727839408313952e-04 -1.000000000000000000e+00 2.000000000000001776e-01 -1.019691123971629088e+00 2.000000000000001776e-01 -9.992104023376087163e-01 -4.005821995408345160e-01 5.960232128698907950e-01 -9.977593839493694716e-01 7.999999999997561284e-01 -5.939772340657311078e-01 -3.999999999999999112e-01 -5.999999999999999778e-01 7.806243523571997356e-01 1.940369321087793697e-01 -8.000000000000004885e-01 3.472706761216937755e-05 -9.990568467186662360e-01 -2.000005393999899350e-01 7.996002033974058953e-01 4.722296461684981867e-10
-3.999999999999999112e-01 8.000000000000088152e-01 1.807996983365827828e-05 -4.000313921511130522e-01 -4.000000275770138058e-01 8.000000000000000444e-01 -3.999270582818104658e-01 7.999442751334844282e-01 3.997676678509971548e-01 -8.000000000000000444e-01 4.000000001127226867e-01 4.000002987182037506e-01 2.046701914142146625e-10 -8.003151728552283517e-01 -4.000781940304456996e-01 -5.999999999999999778e-01 3.999977845287679412e-01 -1.999999999999999556e-01 4.000000000000001332e-01 -6.001344935183112739e-01 -8.000000000000000444e-01 -7.999044284684162509e-01 -2.000030750258012524e-01 -1.998727293608133504e-01 -5.999958239777561930e-01 -9.999999999999438227e-01 2.000225774889048125e-01 4.000000000000001332e-01 -8.000000000000000444e-01 -6.000450392941885092e-01 -1.000036636113607491e+00 -8.000000000000000444e-01 4.000001422323279932e-01 -5.999701657337492833e-01 4.000000315646438653e-01 3.999255405793506468e-01 8.000000000018162583e-01
-3.999999999999999112e-01 4.000000000001411316e-01 4.114533073248234597e-04 -2.001473845214481184e-01 1.999999994179132989e-01 -6.934757345563215059e-140 -1.974521198856013238e-01 1.989981061586636735e-01 -3.910924508216466824e-03 -1.999999999999999556e-01 -7.999999985153709581e-01 -1.999927791313956538e-01 -1.999999937916707993e-01 -4.022364761910010023e-01 -6.010561561709751865e-01 -1.999999999999999556e-01 3.999403889137707613e-01 -3.999999999999999112e-01 6.000000000000000888e-01 5.971420094918102883e-01 -3.999999999999999112e-01 -7.983434249865657417e-01 -4.000767477809828998e-01 2.199212384364723077e-03 -5.997518719913538243e-01 -3.999999999999667155e-01 3.084916676844797704e-03 -3.999999999999999112e-01 -1.000000000000000000e+00 -1.002789184222076191e+00 3.993187876268141090e-01 3.999999999999999112e-01 -7.999794493870435730e-01 4.005632046553157521e-01 3.999998936876751343e-01 -4.011522651909529280e-01 2.941346821863261016e-10
-3.999999999999999112e-01 8.000000000000000444e-01 -2.000000000000000944e-01 -9.999614712615453316e-01 8.000000375129917574e-01 -5.999999999999999778e-01 -1.999289973600280323e-01 -3.999999999914730653e-01 -1.999999999999999556e-01 -1.000000000000000000e+00 8.000000000000000444e-01 -5.999999999999999778e-01 -3.999999999999999112e-01 6.000000000000000888e-01 8.000000000000000444e-01 -1.000000000000000000e+00 8.000000000250100385e-01 7.951111456525426483e-148 -3.999999999999999112e-01 3.999935380327407919e-01 -8.000000000000000444e-01 8.000000478336634080e-01 -8.000000000000000444e-01 -8.006352155892552114e-01 2.000007564729862353e-01 -4.000000000000108469e-01 -5.995424225606843516e-01 -3.590224615960633801e-108 -5.999999999999999778e-01 -6.002034774678378648e-01 -4.000000517321560256e-01 -5.999999999999999778e-01 -1.999985469435791585e-01 -1.999999999999999556e-01 2.000000000000001776e-01 2.000001577236373285e-01 -9.999999999397252148e-01
-1.999999999999999556e-01 -7.999999999547556806e-01 7.129255493395008150e-03 7.409803865710328230e-01 -5.244402401326993778e-03 -1.000000000000000000e+00 1.550395433865761730e+00 -5.911174596591056707e-01 -2.077826819516271684e+00 -8.000000000000000444e-01 2.000005573160832106e-01 2.092742668631159264e-01 -9.999976804044974354e-01 -9.916863007216851766e-01 -7.288270288903346827e-01 4.000000000000001332e-01 -6.483480873829534641e-01 8.000000000000000444e-01 -5.999999999999999778e-01 -2.323357390845422810e+00 -5.999999999999999778e-01 5.000236957697370421e-01 -6.516365722607286859e-01 1.096819346878015411e+00 1.031208367266086334e+00 7.999999999999769518e-01 2.649496136816316127e-01 -8.000000000000000444e-01 -5.999999999999999778e-01 -5.625126823516424235e-01 -6.688711192726316535e-01 -6.000000000000693667e-01 -7.974218710876904703e-01 8.529394356281699840e-02 -1.998918845253810639e-01 -1.245492240401466333e+00 -3.999999596645102962e-01
2.000000000000001776e-01 6.000000000104410702e-01 8.182468625183653144e-01 4.097297361053616749e-01 -4.000291626895671748e-01 -1.000000000000000000e+00 2.694141391798408613e-01 -8.308080192783251494e-01 -4.323321490029584102e-01 8.000000000000000444e-01 -9.999998999871059224e-01 8.006065123287590124e-01 -1.999998635532056479e-01 2.728745810892322932e-01 -8.338738662036043747e-01 -1.999999999999999556e-01 -2.039707099728763906e-01 -5.999999999999999778e-01 -3.999999999999999112e-01 -7.925320217775366771e-01 8.000000000000000444e-01 8.512132106796398423e-01 -4.046294379184168233e-01 7.867435950982033521e-01 4.080605004176086625e-01 6.000000000025136337e-01 2.047218760233221746e-01 -1.000000000000000000e+00 -3.999999999999999112e-01 -8.167916420576047942e-01 -2.362830363383314203e-01 -1.602700630769817325e-14 -3.995280836115555623e-01 8.355757904046540174e-01 6.000101931472275885e-01 1.783505699772400255e-01 -5.999999968272672346e-01
-1.000000000000000000e+00 -7.999999999773779180e-01 -7.733344443357820230e-01 -4.811119184103760937e-01 -1.000010881357389136e+00 2.000000000000001776e-01 5.813179078891245188e-01 7.705762358189558459e-01 -2.969964470088751751e-01 6.000000000000000888e-01 2.000001374202656224e-01 -5.993591742105141007e-01 2.000005457871772974e-01 -4.855446970020250719e-01 5.160110073574463163e-01 2.000000000000001776e-01 7.933822351697499276e-01 -3.999999999999999112e-01 6.000000000000000888e-01 5.333650154732195725e-01 6.000000000000000888e-01 -3.240609125904923560e-01 -8.082429292845494384e-01 6.927718436778123046e-01 -7.781139505656277100e-01 2.000000000027508384e-01 4.211388717553471994e-01 4.000000000000001332e-01 -1.999999999999999556e-01 2.117030755841431411e-02 7.541409428132265225e-01 1.999999999999654554e-01 4.007623968932780834e-01 4.978507144273214835e-01 -9.999521264579500635e-01 -1.101964597823895664e+00 -1.999999945611464491e-01
-1.999999999999999556e-01 2.000000000052207239e-01 6.185535247312442531e-01 3.108505062035124208e-02 4.000005102107487831e-01 2.000000000000001776e-01 9.579012729737785836e-01 5.860623212372777502e-01 -6.774440496676528145e-01 -8.000000000000000444e-01 1.999999975408588704e-01 -3.997259641045436407e-01 -3.999999317766027573e-01 -3.687812839916819740e-01 3.814299724458531382e-01 1.050954264637549660e-166 3.963224592105043520e-01 -5.999999999999999778e-01 -5.566570194136525796e-88 5.392563555015335020e-01 1.352947280685000749e-30 4.143914126630788286e-01 -8.027342767478123919e-01 -8.489426758650975291e-01 2.146802727256556242e-01 -6.000000000303365999e-01 -9.389612789263678261e-01 6.000000000000000888e-01 4.000000000000001332e-01 4.404869876004242624e-01 -9.980971794825603816e-01 3.999999999999920841e-01 4.041774718201365801e-01 6.272073800499630147e-01 8.000178208939017210e-01 -4.587709776681214158e-01 8.000000344428462862e-01
-8.000000000000000444e-01 6.000000000939691436e-01 -8.277378943167738867e-02 -1.129210091918848802e+00 -6.001548394747875381e-01 -9.395477693988872025e-138 -8.265069064200281090e-02 3.911094074205308073e-03 -5.552708691839240984e-01 -3.999999999999999112e-01 -3.999995017506060568e-01 -3.976371564793186875e-01 8.000032747230627628e-01 -4.660479333833063009e-01 4.249027805057777329e-01 1.303183288150561609e-166 5.506195407097403960e-01 4.000000000000001332e-01 -5.999999999999999778e-01 1.530187489840018067e-03 -1.999999999999999556e-01 1.296528344377325004e+00 5.708906782917806400e-01 1.641951849596400059e+00 -2.757373368383368439e-01 2.000000000181295368e-01 -1.050583730300896912e-01 -8.000000000000000444e-01 -1.000000000000000000e+00 -1.300324466612140517e+00 -2.898610654491827199e-01 5.999999999998559819e-01 2.009794399011143318e-01 3.902694337545117298e-01 2.000733907440960802e-01 3.880957338245441535e-01 -3.999999873089943314e-01
-3.999999999999999112e-01 -7.999999999965197173e-01 2.174665469112675720e-02 -3.012636656183264594e-01 -4.000145555085389271e-01 -4.026633297423801956e-138 6.620269921353609810e-01 -8.011780776625002654e-01 8.000000000000000444e-01 2.000000000000001776e-01 3.999999975412861231e-01 2.004794926607952055e-01 2.000001364467944853e-01 -6.726535363971835046e-01 -2.294386080788286125e-02 -1.000000000000000000e+00 3.911732263173938184e-01 -3.999999999999999112e-01 -3.999999999999999112e-01 -8.316482096048916084e-01 2.000000000000001776e-01 -3.907138425044985319e-01 -9.755934531924902522e-03 7.000784505837587268e-01 -9.495513987175203674e-01 6.829050540716578826e-12 7.203548001108066312e-02 2.000000000000001776e-01 4.000000000000001332e-01 7.533325302636334486e-02 -1.100747429824420864e+00 1.999999999999948486e-01 4.005443076508319877e-01 -5.770990821101118495e-01 6.000178209469787527e-01 -6.470916642068373914e-01 4.000000045326137510e-01
-1.999999999999999556e-01 6.960668599489008435e-12 8.168881717467458836e-01 -4.035126616880984063e-01 -8.000168140243308912e-01 6.000000000000000888e-01 -5.407754508881262856e-01 5.548343374850822629e-01 4.838339254985208893e-01 -1.999999999999999556e-01 -5.999999582405743936e-01 -9.998404922660119043e-01 -5.999997953298085163e-01 -6.911718722395089609e-02 7.705744819262704270e-01 -5.999999999999999778e-01 -3.753020437350076868e-03 8.000000000000000444e-01 -8.000000000000000444e-01 -2.674196311359794964e-01 2.000000000000001776e-01 2.814960589686129611e-01 5.971809113118828893e-01 -4.953285859476512787e-01 4.109062946595662402e-01 -1.999999999956844077e-01 8.165910900097720360e-01 2.000000000000001776e-01 4.673906915157097594e-43 -4.445488013812778222e-02 7.641431793859700949e-01 1.999999999999894917e-01 6.000723912623876499e-01 -7.860064393935798366e-01 -1.000009139722879192e+00 -1.047058425899909606e+00 8.000000009066866591e-01
6.000000000000000888e-01 1.218117004910576638e-11 -1.658411534037296520e-01 1.211192991212422902e-02 -2.615846109260255492e-05 4.000000000000001332e-01 -2.744112919919560745e-01 -1.093965355567774633e+00 -4.710541738367848286e-01 2.000000000000001776e-01 8.000001106740840529e-01 2.003317136961953737e-01 -3.999995906596170991e-01 -8.671685347190953852e-01 5.456396596844031999e-01 -3.999999999999999112e-01 -1.005813354284206262e+00 6.000000000000000888e-01 -8.000000000000000444e-01 -1.195519614942029296e+00 6.000000000000000888e-01 -4.351784122515270914e-01 3.933931975542195869e-01 1.150887968993889787e+00 1.709970736376197065e-02 -5.999999999620646562e-01 -7.659646090255961548e-01 -1.000000000000000000e+00 4.000000000000001332e-01 -7.038817626250888360e-01 -6.055656378594226341e-02 -2.000000000000186351e-01 2.002884534252768745e-01 6.295327156515443390e-01 2.000183476767812829e-01 -2.863127678813926491e-01 4.000000022684285783e-01
2.000000000000001776e-01 2.088200579846702530e-11 8.518147050783980712e-01 4.913677756242890160e-01 3.996023731365997422e-01 -1.000000000000000000e+00 2.874163798844358575e-01 -1.318469158879275460e-01 -3.872202483382640725e-01 -1.000000000000000000e+00 6.000001158507974885e-01 -3.969398523037021564e-01 2.000008869041630111e-01 3.533496907122093966e-01 -1.215712024935702518e+00 8.000000000000000444e-01 -4.488059435042118794e-02 -1.999999999999999556e-01 2.000000000000001776e-01 -1.254328767386955423e+00 -1.999999999999999556e-01 2.864708594707407463e-01 9.446868987972600884e-02 -9.391951311225379406e-01 -2.047753896126186801e-01 1.040985474311617187e-11 1.190806144936261468e+00 -5.744359385537014953e-105 2.687496476215331057e-42 -1.450682900587376478e+00 -7.933154614105268898e-01 -8.000000000000320188e-01 2.323386311027782290e-03 6.179767739607102683e-01 6.000000680689704380e-01 3.726969889829037097e-01 -1.999999723534314766e-01
