2.068965114544853434e-01 3.841962272575605852e-01 1.997889676392761160e-01
2.180162676600442273e-01 3.385134624555953264e-01 -5.774521149375950735e-01
-6.844246243792879714e-01 -7.383638789942146285e-01 -6.002631701591208957e-01
-6.650251955286913264e-01 -1.113607037511689796e-01 2.700781931301422523e-01
-1.959461895870047987e-01 -2.742483743207096980e-01 7.413357447778200493e-01
3.862668002230918995e-01 3.429256181178773621e-01 2.050185270917619373e-01
-6.800597356234417967e-01 -1.001185863332178932e-01 7.029399017031469077e-01
-6.913030159381458595e-02 -4.153170260394107860e-01 1.368749304750034312e-01
1.952308848881137981e-01 -4.033973340493718918e-01 5.929363828749154575e-01
-8.062702883643720897e-01 7.002395803022899434e-01 4.330093394691718056e-01
-8.829474570667052991e-01 4.099043546821292683e-01 -6.591430462425788006e-01
-3.598934465501832936e-01 5.358972966818857930e-01 -9.651394544753379989e-01
-4.462152906307413347e-01 -3.355830693506124396e-01 -9.218923113661799951e-01
-4.151036638308366888e-01 7.072007098663565250e-01 -9.040573193524484852e-01
5.371966926835051170e-01 -3.842999930661121222e-01 3.355451100387838448e-01
9.798842234743042334e-02 6.965274166872785777e-01 2.664719995653975215e-01
1.459228926991765207e-01 -5.386184322986720119e-01 -3.151702760388485069e-01
-8.872439862364323027e-01 1.379136526742128221e-01 2.773986749909022609e-01
-4.142995997349590009e-01 7.698078831910252218e-01 1.768166823536279630e-01
5.415580783278094446e-01 7.784880614927525144e-01 4.901058594094717669e-01
-5.992714995261491095e-01 -7.662013162510716846e-01 -1.468326463725128095e-01
-8.538448295652748543e-01 2.047807213544492189e-01 -1.128293349517129007e+00
5.528320225095024743e-01 7.591708040417535219e-01 5.776744500535788696e-01
-4.717374696494327502e-01 1.029518103121778605e+00 -1.263989172654859106e+00
-1.975436464051386065e-02 -5.049987798149556673e-01 -1.789071064984004977e-01
5.094738928504648490e-01 -4.873241051270809643e-01 -7.433947717501970809e-01
-1.130704070266753541e-01 -7.199315350027113425e-01 4.760008703941276953e-01
-8.137683974386273889e-01 5.424450001062148807e-01 4.053034338046498375e-01
-4.000351976617190775e-01 -1.000480618011662548e+00 -3.997150932871119666e-01
-5.913050004028279627e-01 8.000266345550324232e-01 -1.218198006739462935e-01
7.589327580689912978e-01 -4.960094275340678482e-01 -5.482112742691467311e-01
-3.494313917927047153e-02 -8.041365194306896447e-01 5.585656059922581296e-01
1.857991826270490032e-01 3.317462756840203753e-01 2.172279545730756989e-01
8.635647111845926593e-01 -4.929398140370820358e-01 4.749902697886752567e-01
7.061869354150438483e-01 -3.712603296716418533e-02 8.295323838409831563e-01
-2.032546207433665597e-01 -2.283311833913230227e-01 -7.616816019711772912e-01
-6.005148319470727802e-01 -4.138816456734461524e-01 6.146396058163280385e-01
