1.430805501986658068e-01 4.761227242336379950e-01 -4.975849939413879430e-01 -5.584711737709582291e-01 7.572982130138685708e-01 -6.335548786086524498e-01 3.426270458892756166e-01 -4.735381601142991670e-01 3.600597203843760585e-01 4.349629422259727596e-01 -7.422007395359273563e-01 -3.666823295324329046e-01 -3.496953675454657073e-01 -8.825081379421162442e-01 -4.039080374322974731e-01 9.955921645649759011e-01 6.316091866569144564e-01 -1.192256131431711774e-01 5.205030877745583373e-01 5.791885386485527976e-01 -6.063614345679609885e-01 -3.825181303072415218e-01 6.585444043184103258e-01 -1.108033682105613593e-01 -3.248016773540873814e-02 4.924758310375221271e-01 9.123288433655094565e-01 -5.282540052291779809e-01 2.297131843990498912e-01 -7.709129016821290037e-01 7.018574761859007749e-01 1.781397706546389292e-01 5.472516718451425621e-01 -4.514828697119400713e-01 -5.884331555061287355e-01 8.699539130534332809e-01 -9.244072687311216674e-01
9.098644087178414663e-01 5.889053743781418326e-01 6.707503904890184110e-01 5.170451913426852286e-01 -8.568130384028947999e-01 -8.098451649784090822e-01 -3.874366784616427029e-01 -4.200326947697136104e-01 5.571441613008019100e-01 1.523919619321649210e-01 -6.457109803261311676e-01 8.868326639776549225e-01 -1.035946811830965597e-01 -9.658974026271204272e-01 9.016784303182292515e-01 9.927773990843009877e-02 4.274528310424368649e-01 9.163303413708282497e-01 3.558476981180224707e-01 2.639014015658269208e-01 1.804995912114309986e-01 -3.407348237435421923e-01 -6.434765216763935758e-01 1.843307032001646473e-01 3.213564843050458197e-01 2.986268543400221187e-01 -9.117200977143150586e-01 3.531770138248149227e-01 -4.876658468483163200e-01 -3.676871058374531209e-02 7.717051514907601328e-01 6.167421059951180284e-01 2.995372825246667148e-01 -6.780431492729327436e-01 7.741611543591436773e-01 4.567133578548008893e-04 2.083274218094603447e-01
9.804196402851523828e-01 8.787429417227334838e-01 -1.557858208659157473e-01 -4.953278400016003502e-01 -2.988605456343192968e-01 -9.690248574603903542e-01 -2.280850892313351364e-01 -9.906979926886927412e-01 9.854430221421441871e-01 -2.807883639007033652e-02 1.448638213872200098e-01 4.485301699233580908e-01 9.020702921583831912e-01 -2.210344543881069546e-01 7.284669206416586329e-01 -7.325080128651877132e-02 4.391846874815457658e-01 5.962786868956658770e-01 -9.377558782174489904e-01 -6.285805022997653646e-01 -6.111334449567797922e-01 -4.432976086682783867e-01 6.083543838489330335e-01 2.213316232816633367e-01 -2.235061030571523499e-01 4.297464500301220180e-01 5.927678535478383415e-01 4.660717742141597952e-01 2.383312531232928411e-01 7.735616693426199397e-01 -9.400167250476517689e-01 -8.467136198348182985e-01 6.803702904780692950e-01 -1.992390110024971905e-01 1.399498681223643737e-01 3.104153892904651380e-01 -4.197463092284944158e-02
4.530130715598732483e-01 -4.056448992539643528e-01 6.001396926037232404e-01 1.555856576567491434e-01 -7.512782157317008380e-01 4.780313586405693371e-02 -6.178373023635529843e-02 -8.627787256310978092e-01 3.737067727798759620e-01 -1.045255274866524697e+00 -5.671184324573901037e-02 3.503704613902363096e-01 -4.633325524758282743e-01 -9.335498792311189842e-01 5.177282090252330882e-01 -1.419366930612784017e-01 -8.967662547298662634e-01 -5.120556462312582102e-01 8.286462483606219509e-01 -6.564971497994215310e-01 -7.120303933432103882e-01 5.893190515116260020e-01 1.444461284280386948e-01 9.203690968481741397e-01 8.460310878957257863e-01 -5.926223780317567691e-01 9.164798292450481165e-01 6.107696539912592648e-01 2.509168880556264525e-01 -4.804551387138136231e-01 8.631732563619004539e-02 5.408859247804441717e-01 -5.750070628847991916e-01 3.619240342963414570e-01 -2.539503043382130287e-01 8.066900450944922696e-01 -4.899694351718841268e-01
-5.083435650985131810e-02 -5.974965896089981521e-02 4.801821402310725295e-01 -4.698387204894112212e-01 5.149828552178585817e-01 9.900889090792075464e-01 7.141808367802573443e-01 -5.561377678560851523e-01 2.456652312567464413e-02 1.341590797432171134e-01 -3.474369503461851583e-01 -2.274331422768774424e-01 -4.882056379607244700e-01 7.907982661380398293e-01 5.978354582277499718e-01 1.866079697321484654e-01 4.447701972356664368e-02 -9.743739516234393161e-01 2.548579583866295017e-01 -8.741788045556043718e-01 7.264562291817079354e-01 4.061350878753119953e-01 -7.177308956074057722e-01 -3.149112037073247272e-01 8.203262044332397807e-01 -5.069693898291105505e-01 -7.420078588466558767e-01 2.893866766019763670e-01 1.088127905949685115e-01 -5.872398341746385420e-01 -2.512151908227450714e-01 -1.891886738074593233e-01 7.086220684902151401e-01 -5.875396070639031798e-01 -2.005932232240451585e-01 -5.903220861059611524e-01 -3.073950224815837351e-01
6.086772548984259457e-01 -3.442519192806966499e-01 7.885071416523744547e-01 -5.264089306779600186e-01 1.213096261507881773e-01 7.989875452662338340e-01 -9.390771800818131787e-01 -5.374269391816667296e-01 -6.528712101903559883e-01 3.172329725109929166e-01 -1.145423690861169241e-01 -1.181890990741044228e-01 1.950425409066249838e-01 -8.528656788895176977e-01 6.232635050393251497e-01 -4.610145209697907864e-02 -4.652311139453618738e-01 -7.425594127150356716e-01 9.342415189317947455e-01 8.523460577614707656e-01 -3.421587880020904304e-01 7.541723221489733398e-01 7.937781835435443467e-01 2.032928936355329341e-01 -4.003427657929405914e-01 -7.713789170205500589e-01 -2.665072015165945163e-01 -3.629193663876484344e-01 -9.776689397289682892e-01 9.697796538220599949e-01 -4.070732646033826119e-01 -4.895250345195518160e-01 9.703355686476777819e-02 1.271890184180664574e-01 -3.849141510185138948e-01 -5.990846054305404289e-01 -7.359283956545314975e-01
-2.410492908320740757e-01 8.647601604678442078e-01 6.168095862813987029e-01 6.736602780538549773e-01 -8.132585795525113515e-01 -6.278533928551572885e-01 -5.464384218139202165e-01 -6.183992779728574307e-01 -9.212944427540779024e-01 6.747841863823956787e-01 -7.935312024813898635e-01 -5.288222606136404602e-01 4.606155606973529881e-01 2.955968604873498440e-01 2.728166533399840055e-01 -2.066438366856523379e-01 5.033176984602324433e-01 3.859907318261991960e-01 -1.920684612229607846e-01 -3.152890795334892249e-01 6.236874817480977384e-01 -1.829811177822894819e-01 -7.591286841541946551e-01 -3.643319444764090420e-01 5.638395419464579117e-01 2.738324158667211350e-01 9.804823526607915340e-01 3.317641641384445617e-01 -3.046774369378170699e-01 -6.416785439813776915e-01 -9.223645516245287945e-01 3.738095438353282174e-01 8.890832828771046970e-01 -5.268699045546656329e-02 4.690229697593071428e-02 -5.540702324540049961e-01 -8.340470361206830940e-01
5.983959198828973230e-02 -8.103128837264104156e-01 6.366469552565767742e-01 -4.204831650212805805e-01 1.507765153101579547e-01 -8.651173967685821253e-02 5.857830774015384545e-01 -3.472769975657021696e-02 -9.201327458043151442e-01 -2.266878717988771857e-02 -7.567717254264096916e-01 3.490001427399746503e-01 7.159725024702856544e-03 -9.979620156570497835e-01 -8.315772272737059767e-01 -5.774400402995274462e-01 -4.535918445951053063e-02 9.296868146653353149e-01 3.940454149343092238e-01 7.455731512687255869e-01 6.785869090327913966e-01 -4.292366505372306462e-01 8.695225171894398475e-01 -1.240662211561052164e-01 -4.348801090643039657e-02 -8.795080488584430256e-01 -7.050602759255738539e-01 -2.045623284421367316e-01 -4.774536855715034167e-01 -8.784310588330936920e-01 5.332763317079074472e-01 5.376209333873729346e-01 1.378262607245939186e-02 -6.921837128324594968e-01 -1.937701215575693969e-01 6.706629340715202225e-01 8.054995458026370514e-01
1.780505222629126527e-01 -1.875061735812899588e-01 -9.601460094270590773e-01 -4.420315029558752329e-01 -1.140545277752393893e-01 7.993357527691851150e-01 4.868616318945094834e-01 -4.029007668965325362e-01 -2.084645419032891134e-01 6.234716350828994891e-01 -3.830273451773864579e-01 -3.501375821676031702e-02 -3.299117061292422548e-01 8.579285750646410413e-01 -9.057294693771037464e-01 9.751036354185033117e-01 2.006143980637807023e-01 8.034441562943352988e-01 6.052261454419677333e-01 7.579418703554180459e-02 -1.691819328711316461e-01 -2.410896714860828460e-01 -3.678075190950154116e-01 -8.062717254884228524e-01 -5.148353903358271477e-01 -4.037787910382386602e-01 -8.415284407135896760e-01 -7.247947608230063121e-01 1.153408659472099362e-01 -2.425094347656540084e-01 -3.934338768877533588e-02 2.827840207192369171e-01 -9.426581298683551768e-01 3.577075090136249136e-01 -1.023680646898590674e-01 8.994682467947596738e-01 -2.184240526344212174e-01
-3.760890870972137812e-01 1.459604648959907491e+00 -1.839176216963814614e+00 4.021543272057774843e-01 8.947948742023629221e-01 9.477206051586215541e-01 9.186121056953484854e-02 4.002174310386368283e-01 3.693190878128047583e-01 -4.152501731672514906e-01 9.569278773593803411e-01 -1.647411957442135311e+00 6.670371007275728292e-01 -2.635786351024872465e-01 -1.945701030978046475e-01 2.581817927335975510e-02 -1.717131733765260571e-02 -1.805105537821652673e-01 1.568607256631064262e+00 -2.376476874753776780e-01 4.965534129849624168e-01 -7.346025959088843260e-01 -9.476029228335075549e-01 9.222974399965231385e-01 -8.590846554881261810e-01 5.567838936410882678e-01 1.548788552808391783e+00 -5.088839349469911344e-01 3.246694750452426836e-01 -3.354165757903748712e-01 2.763194205738966347e-01 -5.744238379127749594e-01 -6.488286153762889974e-02 1.598138110662421785e-01 1.825088543630406512e+00 6.031269723282424167e-01 5.719965744039117173e-01
-1.123201190046563130e-01 5.760335857443995566e-01 7.148023024283829407e-01 -5.445582177069723251e-01 9.925804183500701594e-01 -4.001874207574407372e-02 9.357521029039573834e-01 3.303400584112771710e-01 3.160597734848193952e-01 -6.747892762261109567e-01 -5.919232417341923486e-02 -5.982682497186788684e-01 3.520114845785842217e-01 -9.744409248544723123e-01 4.792587910670638718e-01 2.299438168320098452e-01 -7.533853884321449479e-02 3.604430328628166480e-01 -1.921051777994198795e-01 8.995881395411422510e-01 -8.460932181123600460e-01 6.622257406006517577e-01 -9.891671036670386385e-01 6.745007680867987077e-02 7.142249142631891257e-01 2.658319812580103303e-01 -1.806608207740309779e-01 -8.777407215866219747e-01 -4.354346491245866257e-01 2.137133227469214525e-01 -2.581429662094613109e-01 -4.627641524427862363e-01 -3.830647980346835180e-01 8.664031642799817634e-01 1.653801177262832767e-01 5.911599000669907067e-01 -4.870914226067709629e-01
-8.207066911581251123e-02 8.772584179996166798e-01 -5.746068949306921692e-01 4.713787030801626088e-01 -1.095716017903363704e-01 7.859152505916289222e-01 -7.911096558607805251e-01 7.055924552922054893e-02 3.895144244937591704e-01 -4.336198295627899935e-01 4.597312825116992574e-01 5.067242326884067172e-01 -8.826115222211046163e-01 8.115537014390956649e-01 -7.737732825716376883e-01 5.915463071601200218e-01 4.717730339026684483e-01 8.836423472754253994e-02 1.040772094337020448e+00 2.506128762539250321e-02 -7.555216472883099499e-01 -9.570510806985416119e-01 5.752921434166633485e-01 2.754383512353271168e-01 -5.306734279268006116e-01 -9.357036201942721121e-01 -2.124395755115964790e-01 -4.322215457619955625e-01 -1.785920161851315136e-01 -5.997217424519751816e-03 -1.037580875509916067e+00 6.808369366110624821e-01 6.301160640317782224e-01 -8.651816855229067516e-01 6.577991360252364306e-01 2.035047031801792000e-03 -6.860472146645828564e-03
5.888599068567353934e-01 9.224995234204140804e-01 1.805075628704542745e-01 -5.852989245634581117e-01 -6.046055473280509407e-01 -3.134273324889997880e-01 8.873755165300143410e-01 -4.110892650808688487e-01 -6.585480045142637628e-01 3.627771454435505527e-01 2.903870936597571228e-01 9.412856894833909749e-02 -9.513883265982103765e-02 -7.371636818403702884e-01 1.148541122323885277e+00 -6.031860106290702905e-01 -4.437570024921007050e-01 3.947788146612126736e-01 1.075896802815944131e+00 -1.643148119445508315e-01 1.836272952124927138e-01 6.673219641190173412e-01 -6.876584066634044978e-01 7.342858641499301342e-01 3.392273236140870285e-01 8.833092372699593575e-01 6.881677956910684513e-01 -8.977695223112331924e-01 2.885359802280301200e-01 3.521915665718744481e-01 5.156071394054244639e-01 1.038290108729668371e-01 -7.042879093208078700e-01 2.395949493456727974e-01 7.065279691135639695e-02 -1.819768753090096058e-01 -2.907241648242813170e-01
9.688059037519556327e-01 -1.370479648440722231e-01 -5.448150978256810495e-01 7.854572194972109234e-01 -5.603738065320210682e-01 7.882656737427955473e-01 -5.805776497794588042e-01 6.542749532085371245e-01 3.142156398350428592e-01 -8.243292422959991317e-01 -4.711474408448522166e-01 -6.252632163241792496e-01 -7.069178584586888192e-02 3.924558629033848001e-01 4.970135886940490466e-01 5.527579334526365740e-01 -1.437183620156899932e-01 -9.113876854878770750e-01 6.194457463285627519e-01 1.464032826727285075e+00 2.906935387941367299e-01 5.549808424769593351e-01 -6.131996255464491341e-01 8.887220335734626886e-01 -5.993417432198280270e-01 9.496676396723777724e-01 -7.024575145303324497e-01 -9.215080725314084287e-01 5.972721790406717579e-01 9.728203470442426948e-01 -9.395808949344430783e-01 9.902019393310633744e-01 -4.053773530246949086e-01 -4.273552293652284062e-01 2.859643417452764513e+00 6.902914164103970407e-01 -4.006916730098833979e-01
6.876586381588331021e-01 -1.308161027156714562e-01 -3.549020153899909436e-01 -6.156380525961351324e-01 1.472672612331797914e-01 2.463180046244137777e-01 1.338798981792315157e-01 8.595655867309934806e-01 7.602136146357163504e-02 1.741030412557220686e-01 -5.621104722201817339e-01 7.569993455586585540e-01 6.094646018590443859e-02 8.213731898324305725e-01 -2.512843739934385034e-01 -6.778691697026822949e-01 -7.130909578746572608e-01 -3.529648819802272408e-02 -7.977901794250583656e-01 -7.193168627749758626e-01 8.756124336731779811e-02 9.991698610808068537e-01 5.538821846221845258e-01 -2.279968312439784039e-01 2.919060253498231283e-01 2.189530943016797515e-01 -2.084174419955919233e-01 -9.770010279479945936e-02 7.329433234500418726e-01 7.224576659784553989e-01 7.549633145583051208e-01 2.091483676544567682e-01 -7.700362984893183160e-01 2.566709733825534578e-01 4.704861179893738421e-01 2.700507447137034944e-02 3.509523328070900949e-01
8.367492328613151953e-01 -4.129351725020975472e-01 8.170310222615202456e-01 -9.563422695831498288e-01 -3.567921238636989623e-01 2.464400130989179427e-01 6.196575149253286119e-01 -4.121151304810374838e-01 8.511871201022682687e-01 2.935680175916423329e-02 -7.845806333156551959e-01 -6.806447420790130431e-01 9.556836102308703396e-01 -7.515588946248429325e-01 -5.125528109823197509e-01 2.285330955956720311e-01 -6.338645728720326833e-02 3.368144604560914246e-01 3.751402355805722455e-01 -5.086179039988981687e-01 -9.218888644000218235e-01 -3.484449525400863390e-01 -1.475066164380448297e-01 -7.163795775528059018e-01 7.364294217290316968e-01 1.145464595296254995e-01 -4.694269959544034726e-02 7.762889552130001203e-01 2.316823801618202172e-01 -8.267434100037764910e-01 -2.413808352586167549e-01 6.913457178314381668e-01 4.083533311455220804e-01 -2.633909762428320867e-01 9.352224182482716808e-01 4.944033301467245511e-01 -6.445828047141010098e-01
-5.444067345191239138e-02 -1.094863342081085350e-01 -4.236664815338316292e-01 5.292213890854275959e-01 6.993286855491898102e-01 -8.631344200857657967e-01 -7.726329486470253638e-01 8.715228089971992220e-02 -5.295633199978762029e-01 7.225865875072094990e-01 -3.942870339293286230e-01 -5.683069385301758869e-01 4.597278542732368134e-01 -4.039505134119359964e-01 4.616581215241851166e-01 1.700782439976700477e-01 8.744889470197515502e-01 -1.667805310234929395e-02 1.467836491899701945e-01 4.627251299891581571e-01 -7.503483492615757866e-01 4.291758541308216546e-01 8.510396248045295486e-01 -4.495851710678875346e-01 -4.756218201381250399e-01 7.612683864913201148e-01 2.421024526058311935e-02 -6.705111668189507323e-01 5.947715603481555924e-01 -8.941724828487431775e-01 7.698970741543828544e-02 -5.955797054287628178e-01 -4.141900650727026179e-01 -2.527089715693986993e-01 3.160176973271459633e-01 6.396168978247076531e-01 -2.664761724243250862e-01
-9.289512639980664899e-01 4.504987224184054950e-01 -1.202277924479961513e+00 5.501075029541997452e-01 -5.270098062839359554e-02 1.484954614177387278e-01 -2.777642805332702913e-01 -4.590319286426002288e-01 5.835034639906049314e-01 2.773057021766438535e-01 -1.678292893753219883e-01 -1.012539112003574715e+00 8.488620861966038600e-01 -5.944102783747613472e-01 9.883739994663847117e-01 3.542272805854164153e-01 -1.069195705807112873e+00 -9.342433121348240332e-01 2.019746512017284168e-01 3.778164316619161966e-01 1.143742760962840110e+00 -8.326199752561800338e-01 -9.732967196131767085e-02 -1.378343586306045587e-01 -9.177457035061529211e-01 9.733093001626489382e-01 -3.828522215107244553e-01 1.977274004617801673e-01 -4.363445872415091520e-01 9.061952819866798681e-01 -1.385224597378732936e+00 8.838826592894745149e-01 6.849925603511075600e-02 -9.471754005927210951e-01 1.802653274701862651e+00 -4.070575968015063273e-01 8.376526330340259285e-01
