4.463063320914364418e-01 1.364986777777627225e+00 -1.550203975475424212e+00
-6.487786302836704433e-01 8.961227322838761777e-01 5.066812445703267748e-02
-3.243344219233534331e-01 -1.415375365727287615e+00 1.900314952417430980e+00
5.169807229752779731e-01 5.069314886768309103e-01 -1.353086917258930377e+00
7.152998529704094333e-01 -4.005254368422926647e-02 -2.889869844233528551e-01
-1.031109819049579046e-01 -1.189641912074416996e-01 -7.636317567343134938e-01
5.505748232321290292e-01 -8.204872948136622268e-01 3.440546478461389279e-01
1.206751994122135407e+00 2.437469632350262039e-01 -1.140551347154161954e+00
-5.477755370068256857e-01 -1.631690058671677046e-01 -2.373269890959285311e-01
-4.037601741439459935e-01 -1.076036878839317312e+00 8.362350201992835297e-01
1.742484764573319356e-01 -1.260374039869013307e-01 -2.375670166001215833e-01
-4.192300803104144769e-01 -1.165610194838321290e+00 4.515625400499543307e-01
6.002646034480575432e-01 -3.995647160582908586e-01 -7.177424352832028065e-01
-2.132073896908104615e-01 -6.213146262832964783e-01 3.477311898340811891e-01
2.032796984651648597e-01 -7.715531306033432957e-01 -5.228781077107810260e-01
2.038189314874637170e-01 1.456644022353807300e+00 -1.572825484203507651e+00
-4.610064723435038925e-01 1.088095542598396664e-01 -4.459809873533898128e-01
-6.186133762106509337e-01 2.047813210168955289e-01 1.377441309317093410e+00
-2.271924849907144051e+00 1.164512658721743865e-01 2.317565414024964188e+00
1.827179936723723586e+00 -1.911222556030694131e+00 1.731586671348019635e-01
-7.199692115509076507e-01 1.517709809665332976e+00 -1.077780422131393356e+00
-1.537448329187811880e-01 -2.607883688625152185e-01 -2.985323081571397141e-01
-1.527053439148958303e+00 -5.896654282952952242e-01 2.054779618487621473e+00
-5.497834011631754780e-01 -3.584947377414037795e-01 5.115854619554142113e-01
-9.001953500446200351e-01 -1.188863252462751596e+00 1.003089082338551874e+00
2.557831247668014285e-01 4.527111047792156673e-01 2.043651592976277465e-01
-1.707115367598954991e+00 8.752003902605345886e-02 1.486348611453096380e+00
-8.523784950938422256e-01 -5.473687650824188289e-02 9.558478583187812738e-01
1.107361029441448874e+00 -3.801166948133594126e-01 2.293901670602402076e-01
-8.298082087797137296e-01 6.931571109611862624e-01 6.515147704658937888e-01
-1.562673179294606030e+00 1.156901940913155125e+00 -8.345132025044068591e-01
-7.615132581664263434e-02 -3.390334841958009715e+00 3.263309430979456582e+00
-2.115499189738631047e-01 -3.260052837560741684e-02 1.018940714114360491e+00
2.784815147191517237e+00 -2.923561038505416487e+00 -3.729928865469449017e-01
-1.146090238062052569e+00 2.124334292677381608e+00 -1.545855494289515075e+00
-7.130344654837553753e-01 8.855467635707862106e-01 -1.516748072917153689e-01
6.137930379130092096e-01 -2.676467016542010580e+00 1.776020491314763028e+00
