1.235118708896527862e+00 1.807338444589520199e+00 1.887235879846488995e+00 4.015772269355008639e+00 -1.210663442417603958e-01 9.898642930671229800e-01 -4.066089415194818812e+00 2.281309536122102521e+00 2.361894214179826257e+00 8.683876062925501849e-01 1.746386214074304721e+00 1.569206000827108261e+00 -5.448326267810152501e+00 -1.804228738862503623e-01 -1.140107152189387074e+00 7.030067241499126096e-01 2.117626569866517983e+00 -5.146173398255202258e+00 -7.570938593975362618e-01 3.984669704341199825e+00 -9.295164259629769887e+00 -1.373187930785769173e-01 4.965691921628192507e-01 -2.465351446347787245e+00 2.508222891208902627e+00 -1.733305494815726933e+00 9.576681732658381963e-01 -1.610802514393089302e+00 5.071272890735715189e-01 -1.145919670733358320e+00 -4.280841994460681810e-01 -2.173159057869529676e+00 8.361998503940680783e-01 3.918106685875455963e-01 -8.286370570525548596e-01 5.805076253483081317e-01 1.304713699606339927e-01
-3.351403985922837836e-01 -3.683477698556473223e-01 -5.887755801704921410e-01 -1.918882293637056424e+00 1.262571026406770880e+00 -1.502972229395340920e+00 -3.881914138865343866e-01 -2.610283955579410509e-01 -1.689051429892348966e-01 2.675082327505960977e-01 -5.470955968545181403e-01 4.311261761539822435e-01 6.877877121877863376e-01 -1.225173086438738013e+00 1.304299568826908340e+00 -9.304785064519495164e-01 -1.774727789257431798e+00 1.089317897132890511e+00 1.344129609379933199e-01 8.397027581422771281e-01 1.577147403624952648e+00 -1.010840235232545847e+00 1.094090577201704273e-01 2.502784432034999701e-02 -2.632899883563536214e+00 1.597447457123071235e-01 3.988227197032791493e-01 -3.943716971411493355e-01 2.371062965945928691e-01 7.851929241496136136e-02 -6.874139028198817947e-01 3.693805299840480783e-01 -9.865166504968331251e-02 6.752493624847096809e-01 3.356666767904868953e-01 3.289447474998988818e-01 -8.565977991847186779e-01
1.097792421702926013e+00 -1.162673076556741902e+00 -1.720275470778789062e+00 2.079186193544801942e-01 1.800885959204838072e+00 4.086583606024137838e-01 1.193857266052552463e-01 7.736257172057925402e-01 4.584141587767313064e-01 -9.356076339719100465e-01 -1.043678911995578051e+00 -1.725470904439037681e-02 -1.037994059231651389e-01 -1.265632710954565088e+00 3.586299481253197641e+00 -1.927683364288445445e+00 8.515509638912930335e-01 -2.355407390909078635e-01 -5.769528850763739891e-01 1.585730792820116752e+00 1.430548716045327184e+00 -2.388726784355276411e+00 3.794770200164794827e-01 1.883341999250651266e+00 -3.389576717378420145e+00 -7.093592082157936796e-01 3.126142170045591029e-01 -3.130912405417028699e-02 1.351137076586790053e+00 2.007292920814998549e+00 1.162862946569427125e+00 7.345350439758161487e-01 -6.267383205579502015e-01 9.426048831026917485e-02 -1.209504273959072451e+00 5.329805759807925147e-01 8.587433642191539818e-01
3.034496969671729438e-01 -9.407873475261524510e-01 -7.373385880028793249e-01 -3.173386891017926370e-01 -8.971454066471825639e-01 2.082690182615606067e-01 -2.128433740870019908e-01 -3.190964086563538027e-01 6.226308031063125525e-02 -9.668356498292834944e-01 -5.195386093274619865e-01 -4.037879418652912111e-01 -1.464781359979160091e-01 -2.828465784554707874e+00 8.657459493962532671e-01 -1.202054315755137909e-01 1.843391816091639823e+00 6.372659919239516135e-01 -1.103569213268783100e+00 -1.885950831302380948e+00 1.166447032029541031e+00 -9.116427394569632803e-01 -4.308697057506681860e-01 -4.252521593961130497e-01 -1.072855848292544101e+00 -4.634047674316790211e-01 -1.110775502906089507e+00 7.775401298335714584e-01 -7.235520347178052425e-02 1.781647333444497661e-01 -4.711438887126109809e-01 1.633285061227054413e-01 -6.960466719361302346e-01 2.223196326437867909e-01 6.891008084872790596e-01 -5.204775108484220869e-01 -1.863586615517281164e-01
-5.363313618866981658e-01 2.150598441266802774e-01 -1.585404883924346642e+00 -3.555088070623429797e+00 -1.547305944383777110e+00 -1.491373712700029275e+00 2.104732973451613365e+00 -2.501423847716862880e+00 -2.541965882104697094e+00 -7.448469935042241197e-01 -7.208145146432184402e-01 -2.447958470902974248e+00 1.995410822211990842e+00 1.377335891172329352e-01 6.749944285920828069e-01 1.657810988734870428e+00 -1.792247249181243340e+00 1.999778318804903421e+00 -9.147950134282665235e-01 -2.819093841355838848e+00 3.016600134959218416e+00 -1.043975403188287521e+00 -1.518276939128095471e+00 2.208067050102326068e+00 7.990095725268263616e-01 1.006888844193776889e+00 -1.272614022404015000e+00 -3.693748098706136074e-01 -9.828732783498013159e-01 -2.130397495747295089e+00 7.674902793192904804e-01 5.497074541159023831e-01 -2.003368993820328292e+00 -1.655748267586798050e+00 -2.094725128639047806e-01 -1.231092863637628154e+00 -3.459231414683132111e-01
-7.480943988073870399e-01 -1.409434631005938909e+00 1.536772776798023044e+00 -1.208894240304501100e-01 9.840992233327422456e-01 -2.591793917089227350e-02 1.133549779587801343e+00 -1.700156495088800401e+00 4.103116139677985275e-01 -5.988580621721917296e-01 -7.917556525841198400e-01 -1.503604675173197047e-03 8.791963612490202307e-01 2.935551912785701933e+00 -2.049983311765877225e+00 1.173306261548775264e+00 -8.368172916683430662e-01 -1.059132367404252539e+00 -1.071780830038608689e+00 -1.277031184046032997e-01 1.555100285882579092e+00 2.233739155446501812e+00 -8.570639138907616694e-02 1.598676646969448889e+00 3.353928893997670801e+00 1.085158472333420665e+00 3.594531336881663392e-03 6.020614500594551055e-01 -5.744995624379188870e-01 -4.526156824205531670e+00 8.317812452964915559e-01 3.283353967447013577e-01 8.577125416759409093e-01 -1.998160719432348742e+00 -3.460285380947179523e-01 -8.738618696061467572e-01 -2.115198387368070421e+00
6.710422217817051393e-01 -1.199022675114243652e+00 -1.292835094236656435e+00 1.764383330749227097e-01 -7.534472398371590274e-02 -3.160203396589968405e-01 1.206770432926930647e+00 -1.729919104693634857e+00 7.504208710624261647e-01 -1.132709508978888113e+00 -7.765012096097854144e-01 -7.656773126983962285e-01 1.572069587003245505e+00 -2.157893482851653388e+00 -1.004169973246952230e+00 -1.022312178888378664e+00 6.049250716202404510e-01 2.258064575298220689e+00 -8.615844982857556733e-01 -6.553263847390673469e-01 1.843495309113294844e+00 -1.905230411328342033e+00 -1.566675685060638645e-01 1.187167545562361370e+00 -3.798090699396495129e+00 9.222334916742577215e-01 4.737046202599161648e-01 8.777550203586861333e-01 -7.275660389382502258e-01 3.162811921311436958e+00 -1.140740449525900813e+00 -1.131919280264971794e+00 -1.522890093847068860e+00 1.486502096430581121e-01 -8.363071949375712466e-02 -3.199890188502382826e-01 -6.353406915678836420e-01
2.304119652424352349e-01 1.747185261951989255e-01 3.714399129458224591e-01 4.629207238544031933e-01 -2.898743563065599438e-01 1.382658183620694592e+00 -1.188506177971536903e+00 -7.409088613692231817e-01 1.348189649311494209e-01 1.186673568306516602e+00 6.506733148309660208e-01 -1.522056839571455766e+00 -2.369537254367262147e+00 -9.633138790315644018e-01 -7.906156926120272432e-01 9.153205466865963480e-01 3.990445028519101767e-01 -2.543631483824909001e+00 9.599106507093013718e-02 6.152242146566940795e-01 -1.728959936250562990e+00 9.912994556194476559e-02 -1.204084219434386149e+00 -2.568805814165279866e+00 -2.644783411803307560e-01 -6.631890976282724948e-01 -9.388478193791848225e-01 -4.538686306187373343e-01 -9.794157770261353591e-01 5.728365742133305627e-01 -9.497186188181951927e-01 3.448814473499765554e-01 -4.732683144538827880e-01 -2.154029511304171418e+00 1.408831255098758894e-01 7.338822328818235263e-01 -2.763875924472413703e-01
-3.222514772789497051e-01 1.231820428876502671e+00 7.862539408396271856e-01 -7.951431629711187554e-01 -1.891054292009367588e+00 9.225823600677032776e-02 -2.243770629195414035e+00 1.447171081351783739e+00 4.230645821813519003e-01 8.760926129247390559e-01 5.413587393212735549e-02 5.994726384524970975e-01 -1.564848355573041472e+00 2.680533890016580933e-01 -2.183979504072272704e+00 1.529661156440555558e+00 1.966002742493503597e+00 -1.107587259956271053e+00 -8.483647286182760539e-01 6.047722687823421372e-01 -2.178013013204442405e+00 -5.419619448659133143e-01 5.173438046656707590e-01 -6.521418108907693911e-01 -1.272446707746795747e-01 -1.965558951295344747e-01 2.322585414245788571e-01 -1.252478334593936093e+00 1.182509439493746178e-01 -1.701999583929461268e+00 -4.743399729724898650e-01 -3.499226273923019409e-02 -8.601680090580416937e-01 -7.727455117127643991e-01 -1.659373928183784930e-01 1.144294697406174621e-01 -3.511940476749877416e-01
-1.132485120735464257e+00 -4.957374522665716071e-02 -2.540056925266083176e+00 -2.921310547457033113e+00 1.285318873980791698e+00 -1.617405042202561427e+00 -5.683588493904676575e-01 -1.263477642776588805e+00 -1.146637527428292946e+00 -2.765652210183676685e-01 -6.940742549904432845e-01 2.314470744616959674e+00 1.309160693552650745e+00 -1.233224220186880826e+00 -1.990922721603302969e+00 -1.249442535952896893e+00 -3.208500325126181441e+00 6.513529177392844982e-01 -7.568111587631384252e-01 1.572711608629011326e-01 1.432591305124557568e+00 -1.244781395787055711e+00 7.272622011152846122e-01 -8.173870385687376228e-01 -3.534848942124598548e+00 1.316531857685943607e-01 7.299297206614816513e-01 -1.005432279822173758e+00 4.512624255581355048e-01 1.866368604039761570e+00 -9.924874344333741716e-01 4.854039449310545984e-01 -1.258528925548175970e+00 -5.545840621240452073e-01 4.471079759463103542e-01 6.257376755999241036e-01 1.266116036633723851e+00
9.026035539803799468e-01 1.215751493663530303e+00 -1.133160922917198166e+00 2.009565842872984009e-01 7.990752937328440275e-01 -1.858103081445717508e-01 7.745204187165650733e-01 1.714429780857268382e-01 -6.011910011996445258e-01 -3.170364917535246629e-01 6.571784630278287853e-01 1.779119831752508762e+00 -2.533784936064478188e-01 9.482662312197449594e-01 1.411058413957587687e-01 -2.316567510331537794e-01 -1.724530647152307861e+00 -3.565783551728703982e-01 -6.785720826744771061e-01 1.730621778005022149e+00 -8.275625352722570938e-01 -1.351870130918856772e+00 2.073716862085037249e+00 6.531534585454835673e-01 -1.868700932944623361e+00 -4.767144018140349049e-01 2.407968975343111884e-01 3.814983670410492245e-01 -4.496954747282432691e-02 2.146369248444644828e+00 -1.684803256324127529e+00 -6.926902286398912700e-01 -1.186058508131647010e-01 -1.230747164484828904e+00 -1.058742864050510546e+00 -6.707315002090709077e-01 2.033565702639334727e-01
9.639792569827103641e-01 1.050272708233600971e+00 1.277239369210800390e+00 1.127386455591396830e+00 2.719345437270850319e-01 1.577101952198009416e+00 -8.599195585083543314e-01 3.533049485429803904e-01 7.469872814299863828e-01 -5.451971976048221036e-01 7.785781247141654315e-01 1.334448969295238818e-01 -1.059954202376103050e+00 5.657695894941571213e-01 -4.389997410450244830e-01 5.094261862974017729e-01 5.076035274794317154e-01 -4.865681821486941283e-01 -3.759967848132333805e-03 -1.504636450925745939e-01 -1.689664029263890477e+00 1.211224609827725951e+00 6.147042121691784766e-01 -7.520232849053452018e-01 1.932881088288267657e+00 -8.177002887176322288e-01 2.420238459334465575e-01 -1.007706554264347965e+00 3.992406805486682121e-03 -1.066591860814091630e+00 -5.431182296327064993e-03 -7.061133779248458531e-01 6.793463968621313853e-01 7.624076412819359438e-01 1.122287353962045896e-02 -9.439856853389250180e-01 -9.536143260641223585e-02
-1.196201230026764373e+00 -3.697648545599438452e-01 1.486584077163259632e-01 5.121631198073596236e-01 2.612570273291747736e-01 -4.127297692522394722e-03 -9.974546788147885534e-01 -9.122379778407309070e-01 8.691787065000309287e-01 -5.902518923420131403e-01 6.624022394728323881e-01 1.194677052018931818e+00 -1.111242437207563105e+00 7.932038643148109358e-02 5.132722095056423406e-01 -2.711916008411833778e-01 -1.008645809695158269e+00 -1.680673339637518415e+00 -5.419567481491159855e-01 1.074713912457451181e+00 -4.211265528229739541e-01 6.205964057678259316e-01 -1.404337874014996990e-01 9.519766754893476124e-01 -9.285829090086646920e-01 7.216551648432099064e-01 8.372879615443462598e-01 2.932290127767311350e-01 2.955527598765344544e-01 8.252001602729395202e-01 -1.503624931938895459e+00 -1.080002536695323201e+00 -7.488276331811439812e-01 -5.183060650183560769e-01 -5.358545424706941951e-01 -9.247575633758634561e-01 -1.065662073896939122e+00
-4.581013022641682864e-01 -6.929232626884496149e-01 6.158896242782432862e-02 -9.063113353818418316e-01 -4.796367322580779913e+00 -3.573990780851718507e-01 2.093528908078341466e+00 4.649062150957947170e-01 3.094015149632970210e-02 -2.474671428446389987e-02 -4.717248360735862844e-01 -2.613276123058022371e+00 3.472988454642780276e+00 1.038375163198600681e+00 -6.867144434704512079e+00 -7.402278123362840967e-01 4.379858652203111880e-01 7.707760418365032506e-02 3.165182215601273219e-01 1.922352323284962639e+00 2.945065366268706075e+00 5.906592637163339266e-01 -2.232493963669623049e+00 -4.701087944883560188e-01 5.304129877572342222e-01 -4.911278125248895732e-01 -3.429553401542191793e+00 -4.217145046361317484e-01 -3.592227170425985605e+00 -1.470080636165117083e+00 3.765782133313648306e+00 4.097536356011595715e-01 -3.996659268460137637e-01 7.851045850899496248e-01 -3.421309979946448032e-01 1.620843489736875087e-01 -1.141530471865845220e+00
-2.001297612059835362e+00 1.547472147368762763e-01 8.595533932250942755e-01 3.107809546029131620e-01 -1.533578028932953252e+00 -7.925008221153370114e-01 -1.292776066930781731e+00 -7.525270254415710180e-01 6.267325738059257301e-01 -1.756521910227289707e-01 -6.193606811944613044e-01 1.724728828494093369e+00 -3.171094530163645064e+00 4.427103610910340770e+00 2.018739171321437098e+00 -8.334872961964459592e-02 -3.718913197401959359e+00 -2.609551347264964072e+00 -1.616479284428620211e-01 2.022693911172933401e+00 -2.233150793535314094e+00 1.241858548594150458e+00 2.921702380734397253e-01 -6.440254843273872654e-01 9.088360260665410140e-01 -3.738266321246068447e-02 -1.793231953106979026e-01 -1.406197626882697005e-01 5.051364694826228074e-01 2.338946217935149896e+00 -3.380586479606486616e-01 5.629131398339929371e-01 6.859110686817048164e-01 -6.838217853732910800e-01 1.634223990787611602e-01 -4.898444564877643681e-02 -1.881955086040026037e+00
-8.846709723285458571e-01 3.846646777529884598e-01 -9.875775695202951843e-01 -1.724281277985932226e+00 -1.901513811172622859e+00 -6.474813486919824834e-01 -5.216181912090692485e+00 -1.257727755126484936e+00 -8.821452336274053785e-01 6.560071459886789302e-01 1.788305833475555273e-01 2.891405218743986261e+00 -3.015942055556913637e+00 1.404523482517509914e+00 -4.143363159894067671e+00 -2.402543024953188167e-01 -2.398780232756236419e+00 -4.540362573777405042e-01 -7.777471110716993596e-01 -5.795343723735378871e-01 -2.084404737832711074e+00 -1.418943735491174030e+00 1.159886936239178601e+00 -4.057158039766497915e+00 -1.214377653517200617e+00 -1.142992781430619997e+00 1.195158045362326588e-01 -1.025604463163172886e+00 -1.845688486527945704e+00 3.179833208640142406e+00 3.259594884045304286e-01 -6.678659060184268803e-01 -5.048649915303173863e-01 -8.283431329966245427e-01 1.228159526456054293e-02 -9.218678221946080553e-01 -5.834595366280381779e-01
1.201256141741819494e+00 -8.337075926768081624e-01 -7.365584575959487068e-02 1.688947368096332280e+00 -4.718518109793098381e-01 1.490411490073374479e+00 -7.115001535783522790e-01 4.424704312079944524e-01 6.235037520782888976e-01 2.899859463338232413e-01 8.049978766721554990e-01 -2.966318961618191086e+00 -1.118861935861713341e+00 2.416878955152172714e-01 -1.588802797227684138e+00 1.197123170691215099e+00 1.306565524436914982e+00 -9.895048594453789148e-01 -9.364925973964831618e-01 1.603812932884316034e+00 -2.773863851698950445e+00 -1.820476402373635005e-01 -1.556542538782873075e+00 -2.119497526170568413e+00 1.164219231583896841e+00 -1.499256775756552695e+00 -2.387074824172711107e+00 -1.673982664239647367e+00 -7.789593652372277521e-01 -1.925872346605530749e+00 -2.674436257402189043e-01 1.161724603073963857e+00 5.142257900951142657e-01 -5.608099761751195178e-01 -8.816916122159931257e-01 -3.602523588726465054e-01 1.182352028566235447e+00
-2.126722019897710203e-01 -1.422159863256848567e-01 5.217691045298872288e-01 -1.033809071028387372e+00 -9.214941813897319367e-01 1.187111825029636136e-01 -4.228558568093713776e-01 -1.999505826569201172e+00 -4.196464333287466819e-02 8.202316742216287926e-01 9.216519919784417481e-02 3.325428285827509295e-02 -5.975834227903352724e-01 1.771337172048998765e+00 -1.278559116545290308e+00 1.259572071886482791e-01 -1.485370552518785914e+00 -8.613732297927947368e-01 1.313795461976779433e-01 -1.834932020696880661e+00 -6.429220503136251486e-01 -6.106628160500241626e-02 3.061338277127326757e-01 7.177054716576922733e-01 9.365467590050765567e-01 -3.979076946101241519e-01 1.874786743262834010e-01 3.988627984743576271e-01 -1.830619845071430052e-01 -1.353853974009665118e+00 -6.488996948635584738e-01 -4.063563625777606991e-01 -1.379682133983314296e-01 -1.630880982841830251e+00 -4.024844094198535283e-01 -1.114989115803663444e-01 5.107803545869391559e-01
