-6.795337022301997654e-02 -7.634581071611575842e-01 2.143101713514925510e+00
-8.388504653995991767e-01 -2.845345498214634894e+00 -5.061716473928358495e-02
-3.295507776972819158e+00 -1.061931303238651481e+00 1.808500538645015698e+00
-3.814550282032954875e+00 -2.973928022971764840e+00 2.853817443089774031e+00
3.449712446188006432e+00 -6.307038995191848185e-01 -3.261579051808344953e+00
-4.048974325587789691e-01 -2.184341017525021744e+00 1.954384062230477781e+00
-5.753410870856768833e-01 3.785594493266736027e+00 -4.446437783529070487e+00
-3.139275134119716704e+00 -1.708252667981340123e+00 1.027817949861393521e+00
-2.371781042895263703e+00 -1.494419793688630760e+00 7.217240044351289630e-01
7.463105672392736922e-01 -2.120415970802049355e+00 -4.874891119963661867e-02
-1.217300151510635475e-01 -2.503527073680039905e+00 5.094065789408614986e-01
7.688618277412025970e-01 -1.204277631281419847e+00 -4.109914077636471319e+00
-4.937683535745710728e+00 3.492564835864140793e+00 -2.988939038220123301e+00
2.325056998359122051e+00 -5.352801170608637582e-01 -4.141094749580998879e+00
5.553094407948619526e+00 -2.757327463101718057e-01 -5.919841088428843712e+00
2.344898004399494432e-02 -2.457046817038817998e+00 2.512803112786289983e+00
-2.675238365427426324e+00 -1.024613706165371285e+00 3.853953157280880060e+00
-4.198725417090860113e+00 3.903062542724498929e+00 4.838971899163512780e-01
3.793445479287120281e-01 -3.907222282352745268e-01 -4.049832417178443889e-01
3.100907134326679415e+00 -1.717626557264459120e+00 -2.827557040001631883e+00
-7.075080917122472002e+00 5.465636911763525063e+00 -2.308971547834866911e+00
-2.346263066024187438e+00 2.630262823834398356e-01 2.480634586550820142e+00
7.998322903799102157e-01 -8.376472316628241765e-01 -1.929577728930788050e+00
-4.579481738062590734e-01 2.787713951463145712e+00 -4.092906462100556197e+00
-3.783899890814865330e+00 -1.189642291531782581e+00 5.674262822543030715e+00
-1.462404854433405399e+00 1.880882199014996203e+00 -3.497908871817760335e-01
1.392611426418048914e+00 -1.005852839835538637e+00 -2.301864913717478700e+00
-8.377594367982454937e-01 2.067123769128138111e+00 7.869213117861155737e-01
1.449908410536631109e+00 -1.051184923510352975e+00 -2.173727051057477766e+00
7.282158502983051562e-01 7.472068726314542442e-01 -4.125511955338405201e+00
5.253761453827212602e-01 1.275044483158338515e+00 3.491311425364156840e+00
1.937354687992179691e+00 1.449509233314948187e+00 6.878255568481779214e-01
-1.811511294050812015e+00 -6.586797006990163794e-01 1.057488481326520402e+00
-2.430443665616151439e+00 6.315645613770046740e-01 6.105021817500382308e-01
-4.405713630922979962e-01 -2.498860878345365855e-02 3.840617052282941507e-02
1.117790953186676567e-01 -7.041630310152471317e-01 8.235619784400055599e-01
1.252019804401682368e+00 -4.631752337823767940e-01 2.202234100005910022e+00
